<?xml version="1.0"?>
<opencv_storage>
<stage12>
  <maxWeakCount>100</maxWeakCount>
  <stageThreshold>-1.2340497970581055e+00</stageThreshold>
  <weakClassifiers>
    <_>
      <internalNodes>
        0 -1 145927 -1.8809182802215219e-04</internalNodes>
      <leafValues>
        6.8421053886413574e-01 -8.4761905670166016e-01</leafValues></_>
    <_>
      <internalNodes>
        0 -1 118997 8.2996929995715618e-04</internalNodes>
      <leafValues>
        -4.1634729504585266e-01 9.0806996822357178e-01</leafValues></_>
    <_>
      <internalNodes>
        0 -1 39792 8.2650338299572468e-05</internalNodes>
      <leafValues>
        5.3832832723855972e-02 -1.</leafValues></_>
    <_>
      <internalNodes>
        0 -1 78288 -3.1282478012144566e-03</internalNodes>
      <leafValues>
        1. -4.6389188617467880e-02</leafValues></_>
    <_>
      <internalNodes>
        0 -1 7348 2.2449530661106110e-03</internalNodes>
      <leafValues>
        2.5571228936314583e-02 -1.</leafValues></_>
    <_>
      <internalNodes>
        0 -1 589 -1.1531319469213486e-03</internalNodes>
      <leafValues>
        1. -3.0982727184891701e-03</leafValues></_>
    <_>
      <internalNodes>
        0 -1 28 4.4575135689228773e-04</internalNodes>
      <leafValues>
        -9.9138013354149734e-09 -1.</leafValues></_>
    <_>
      <internalNodes>
        0 -1 23 1.3514735037460923e-03</internalNodes>
      <leafValues>
        -3.4137117605078076e-15 1.</leafValues></_>
    <_>
      <internalNodes>
        0 -1 11 2.5253491476178169e-03</internalNodes>
      <leafValues>
        3.2583568123771859e-15 -1.</leafValues></_>
    <_>
      <internalNodes>
        0 -1 0 1.3761132140643895e-04</internalNodes>
      <leafValues>
        -1.4218633865789587e-15 1.</leafValues></_>
    <_>
      <internalNodes>
        0 -1 0 -1.4187136548571289e-04</internalNodes>
      <leafValues>
        -1. -1.1205109809233889e-15</leafValues></_>
    <_>
      <internalNodes>
        0 -1 0 -4.3766282033175230e-04</internalNodes>
      <leafValues>
        1. 1.7149758557236387e-15</leafValues></_>
    <_>
      <internalNodes>
        0 -1 0 -4.2089150520041585e-04</internalNodes>
      <leafValues>
        -1. 1.0140176577507235e-15</leafValues></_>
    <_>
      <internalNodes>
        0 -1 0 -4.3766282033175230e-04</internalNodes>
      <leafValues>
        1. -2.3883237442313791e-15</leafValues></_>
    <_>
      <internalNodes>
        0 -1 0 -4.2089150520041585e-04</internalNodes>
      <leafValues>
        -1. 8.4700298346379122e-16</leafValues></_>
    <_>
      <internalNodes>
        0 -1 0 -4.3766282033175230e-04</internalNodes>
      <leafValues>
        1. -2.0081340646474705e-15</leafValues></_>
    <_>
      <internalNodes>
        0 -1 0 -4.2089150520041585e-04</internalNodes>
      <leafValues>
        -1. 9.8740536485565113e-16</leafValues></_>
    <_>
      <internalNodes>
        0 -1 0 -4.3766282033175230e-04</internalNodes>
      <leafValues>
        1. -1.0416279672158983e-15</leafValues></_>
    <_>
      <internalNodes>
        0 -1 0 -4.2089150520041585e-04</internalNodes>
      <leafValues>
        -1. 4.1111302607337063e-16</leafValues></_>
    <_>
      <internalNodes>
        0 -1 0 -4.3766282033175230e-04</internalNodes>
      <leafValues>
        1. -5.5242011806223693e-16</leafValues></_>
    <_>
      <internalNodes>
        0 -1 0 -4.2089150520041585e-04</internalNodes>
      <leafValues>
        -1. 6.9100026688675683e-16</leafValues></_>
    <_>
      <internalNodes>
        0 -1 0 -4.3766282033175230e-04</internalNodes>
      <leafValues>
        1. -6.6968341221968148e-16</leafValues></_>
    <_>
      <internalNodes>
        0 -1 0 -4.2089150520041585e-04</internalNodes>
      <leafValues>
        -1. 6.9100026688675683e-16</leafValues></_>
    <_>
      <internalNodes>
        0 -1 0 -4.3766282033175230e-04</internalNodes>
      <leafValues>
        1. -6.6968341221968148e-16</leafValues></_>
    <_>
      <internalNodes>
        0 -1 0 -4.2089150520041585e-04</internalNodes>
      <leafValues>
        -1. 6.9100026688675683e-16</leafValues></_>
    <_>
      <internalNodes>
        0 -1 0 -4.3766282033175230e-04</internalNodes>
      <leafValues>
        1. -6.6968341221968148e-16</leafValues></_>
    <_>
      <internalNodes>
        0 -1 0 -4.2089150520041585e-04</internalNodes>
      <leafValues>
        -1. 6.9100026688675683e-16</leafValues></_>
    <_>
      <internalNodes>
        0 -1 0 -4.3766282033175230e-04</internalNodes>
      <leafValues>
        1. -6.6968341221968148e-16</leafValues></_>
    <_>
      <internalNodes>
        0 -1 0 -4.2089150520041585e-04</internalNodes>
      <leafValues>
        -1. 6.9100026688675683e-16</leafValues></_>
    <_>
      <internalNodes>
        0 -1 0 -4.3766282033175230e-04</internalNodes>
      <leafValues>
        1. -6.6968341221968148e-16</leafValues></_>
    <_>
      <internalNodes>
        0 -1 0 -4.2089150520041585e-04</internalNodes>
      <leafValues>
        -1. 6.9100026688675683e-16</leafValues></_>
    <_>
      <internalNodes>
        0 -1 0 -4.3766282033175230e-04</internalNodes>
      <leafValues>
        1. -6.6968341221968148e-16</leafValues></_>
    <_>
      <internalNodes>
        0 -1 0 -4.2089150520041585e-04</internalNodes>
      <leafValues>
        -1. 6.9100026688675683e-16</leafValues></_>
    <_>
      <internalNodes>
        0 -1 0 -4.3766282033175230e-04</internalNodes>
      <leafValues>
        1. -6.6968341221968148e-16</leafValues></_>
    <_>
      <internalNodes>
        0 -1 0 -4.2089150520041585e-04</internalNodes>
      <leafValues>
        -1. 6.9100026688675683e-16</leafValues></_>
    <_>
      <internalNodes>
        0 -1 0 -4.3766282033175230e-04</internalNodes>
      <leafValues>
        1. -6.6968341221968148e-16</leafValues></_>
    <_>
      <internalNodes>
        0 -1 0 -4.2089150520041585e-04</internalNodes>
      <leafValues>
        -1. 6.9100026688675683e-16</leafValues></_>
    <_>
      <internalNodes>
        0 -1 0 -4.3766282033175230e-04</internalNodes>
      <leafValues>
        1. -6.6968341221968148e-16</leafValues></_>
    <_>
      <internalNodes>
        0 -1 0 -4.2089150520041585e-04</internalNodes>
      <leafValues>
        -1. 5.7537471093282847e-16</leafValues></_>
    <_>
      <internalNodes>
        0 -1 0 -4.3766282033175230e-04</internalNodes>
      <leafValues>
        1. -7.2098613319206552e-16</leafValues></_>
    <_>
      <internalNodes>
        0 -1 0 -4.2089150520041585e-04</internalNodes>
      <leafValues>
        -1. 5.7537471093282847e-16</leafValues></_>
    <_>
      <internalNodes>
        0 -1 0 -4.3766282033175230e-04</internalNodes>
      <leafValues>
        1. -7.2098613319206552e-16</leafValues></_>
    <_>
      <internalNodes>
        0 -1 0 -4.2089150520041585e-04</internalNodes>
      <leafValues>
        -1. 5.7537471093282847e-16</leafValues></_>
    <_>
      <internalNodes>
        0 -1 0 -4.3766282033175230e-04</internalNodes>
      <leafValues>
        1. -7.2098613319206552e-16</leafValues></_>
    <_>
      <internalNodes>
        0 -1 0 -4.2089150520041585e-04</internalNodes>
      <leafValues>
        -1. 5.7537471093282847e-16</leafValues></_>
    <_>
      <internalNodes>
        0 -1 0 -4.3766282033175230e-04</internalNodes>
      <leafValues>
        1. -7.2098613319206552e-16</leafValues></_>
    <_>
      <internalNodes>
        0 -1 0 -4.2089150520041585e-04</internalNodes>
      <leafValues>
        -1. 5.7537471093282847e-16</leafValues></_>
    <_>
      <internalNodes>
        0 -1 0 -4.3766282033175230e-04</internalNodes>
      <leafValues>
        1. -7.2098613319206552e-16</leafValues></_>
    <_>
      <internalNodes>
        0 -1 0 -4.2089150520041585e-04</internalNodes>
      <leafValues>
        -1. 5.7537471093282847e-16</leafValues></_>
    <_>
      <internalNodes>
        0 -1 0 -4.3766282033175230e-04</internalNodes>
      <leafValues>
        1. -7.2098613319206552e-16</leafValues></_>
    <_>
      <internalNodes>
        0 -1 0 -4.2089150520041585e-04</internalNodes>
      <leafValues>
        -1. 5.7537471093282847e-16</leafValues></_>
    <_>
      <internalNodes>
        0 -1 0 -4.3766282033175230e-04</internalNodes>
      <leafValues>
        1. -7.2098613319206552e-16</leafValues></_>
    <_>
      <internalNodes>
        0 -1 0 -4.2089150520041585e-04</internalNodes>
      <leafValues>
        -1. 5.7537471093282847e-16</leafValues></_>
    <_>
      <internalNodes>
        0 -1 0 -4.3766282033175230e-04</internalNodes>
      <leafValues>
        1. -7.2098613319206552e-16</leafValues></_>
    <_>
      <internalNodes>
        0 -1 0 -4.2089150520041585e-04</internalNodes>
      <leafValues>
        -1. 5.7537471093282847e-16</leafValues></_>
    <_>
      <internalNodes>
        0 -1 0 -4.3766282033175230e-04</internalNodes>
      <leafValues>
        1. -7.2098613319206552e-16</leafValues></_>
    <_>
      <internalNodes>
        0 -1 0 -4.2089150520041585e-04</internalNodes>
      <leafValues>
        -1. 5.7537471093282847e-16</leafValues></_>
    <_>
      <internalNodes>
        0 -1 0 -4.3766282033175230e-04</internalNodes>
      <leafValues>
        1. -7.2098613319206552e-16</leafValues></_>
    <_>
      <internalNodes>
        0 -1 0 -4.2089150520041585e-04</internalNodes>
      <leafValues>
        -1. 5.7537471093282847e-16</leafValues></_>
    <_>
      <internalNodes>
        0 -1 0 -4.3766282033175230e-04</internalNodes>
      <leafValues>
        1. -7.2098613319206552e-16</leafValues></_>
    <_>
      <internalNodes>
        0 -1 0 -4.2089150520041585e-04</internalNodes>
      <leafValues>
        -1. 5.7537471093282847e-16</leafValues></_>
    <_>
      <internalNodes>
        0 -1 0 -4.3766282033175230e-04</internalNodes>
      <leafValues>
        1. -7.2098613319206552e-16</leafValues></_>
    <_>
      <internalNodes>
        0 -1 0 -4.2089150520041585e-04</internalNodes>
      <leafValues>
        -1. 5.7537471093282847e-16</leafValues></_>
    <_>
      <internalNodes>
        0 -1 0 -4.3766282033175230e-04</internalNodes>
      <leafValues>
        1. -7.2098613319206552e-16</leafValues></_>
    <_>
      <internalNodes>
        0 -1 0 -4.2089150520041585e-04</internalNodes>
      <leafValues>
        -1. 5.7537471093282847e-16</leafValues></_>
    <_>
      <internalNodes>
        0 -1 0 -4.3766282033175230e-04</internalNodes>
      <leafValues>
        1. -7.2098613319206552e-16</leafValues></_>
    <_>
      <internalNodes>
        0 -1 0 -4.2089150520041585e-04</internalNodes>
      <leafValues>
        -1. 5.7537471093282847e-16</leafValues></_>
    <_>
      <internalNodes>
        0 -1 0 -4.3766282033175230e-04</internalNodes>
      <leafValues>
        1. -7.2098613319206552e-16</leafValues></_>
    <_>
      <internalNodes>
        0 -1 0 -4.2089150520041585e-04</internalNodes>
      <leafValues>
        -1. 5.7537471093282847e-16</leafValues></_>
    <_>
      <internalNodes>
        0 -1 0 -4.3766282033175230e-04</internalNodes>
      <leafValues>
        1. -7.2098613319206552e-16</leafValues></_>
    <_>
      <internalNodes>
        0 -1 0 -4.2089150520041585e-04</internalNodes>
      <leafValues>
        -1. 5.7537471093282847e-16</leafValues></_>
    <_>
      <internalNodes>
        0 -1 0 -4.3766282033175230e-04</internalNodes>
      <leafValues>
        1. -7.2098613319206552e-16</leafValues></_>
    <_>
      <internalNodes>
        0 -1 0 -4.2089150520041585e-04</internalNodes>
      <leafValues>
        -1. 5.7537471093282847e-16</leafValues></_>
    <_>
      <internalNodes>
        0 -1 0 -4.3766282033175230e-04</internalNodes>
      <leafValues>
        1. -7.2098613319206552e-16</leafValues></_>
    <_>
      <internalNodes>
        0 -1 0 -4.2089150520041585e-04</internalNodes>
      <leafValues>
        -1. 5.7537471093282847e-16</leafValues></_>
    <_>
      <internalNodes>
        0 -1 0 -4.3766282033175230e-04</internalNodes>
      <leafValues>
        1. -7.2098613319206552e-16</leafValues></_>
    <_>
      <internalNodes>
        0 -1 0 -4.2089150520041585e-04</internalNodes>
      <leafValues>
        -1. 5.7537471093282847e-16</leafValues></_>
    <_>
      <internalNodes>
        0 -1 0 -4.3766282033175230e-04</internalNodes>
      <leafValues>
        1. -6.6968341221968148e-16</leafValues></_>
    <_>
      <internalNodes>
        0 -1 0 -4.2089150520041585e-04</internalNodes>
      <leafValues>
        -1. 5.7537471093282847e-16</leafValues></_>
    <_>
      <internalNodes>
        0 -1 0 -4.3766282033175230e-04</internalNodes>
      <leafValues>
        1. -6.6968341221968148e-16</leafValues></_>
    <_>
      <internalNodes>
        0 -1 0 -4.2089150520041585e-04</internalNodes>
      <leafValues>
        -1. 5.7537471093282847e-16</leafValues></_>
    <_>
      <internalNodes>
        0 -1 0 -4.3766282033175230e-04</internalNodes>
      <leafValues>
        1. -6.6968341221968148e-16</leafValues></_>
    <_>
      <internalNodes>
        0 -1 0 -4.2089150520041585e-04</internalNodes>
      <leafValues>
        -1. 5.7537471093282847e-16</leafValues></_>
    <_>
      <internalNodes>
        0 -1 0 -4.3766282033175230e-04</internalNodes>
      <leafValues>
        1. -6.6968341221968148e-16</leafValues></_>
    <_>
      <internalNodes>
        0 -1 0 -4.2089150520041585e-04</internalNodes>
      <leafValues>
        -1. 5.7537471093282847e-16</leafValues></_>
    <_>
      <internalNodes>
        0 -1 0 -4.3766282033175230e-04</internalNodes>
      <leafValues>
        1. -6.6968341221968148e-16</leafValues></_>
    <_>
      <internalNodes>
        0 -1 0 -4.2089150520041585e-04</internalNodes>
      <leafValues>
        -1. 5.7537471093282847e-16</leafValues></_>
    <_>
      <internalNodes>
        0 -1 0 -4.3766282033175230e-04</internalNodes>
      <leafValues>
        1. -6.6968341221968148e-16</leafValues></_>
    <_>
      <internalNodes>
        0 -1 0 -4.2089150520041585e-04</internalNodes>
      <leafValues>
        -1. 5.7537471093282847e-16</leafValues></_>
    <_>
      <internalNodes>
        0 -1 0 -4.3766282033175230e-04</internalNodes>
      <leafValues>
        1. -6.6968341221968148e-16</leafValues></_>
    <_>
      <internalNodes>
        0 -1 0 -4.2089150520041585e-04</internalNodes>
      <leafValues>
        -1. 5.7537471093282847e-16</leafValues></_>
    <_>
      <internalNodes>
        0 -1 0 -4.3766282033175230e-04</internalNodes>
      <leafValues>
        1. -6.6968341221968148e-16</leafValues></_>
    <_>
      <internalNodes>
        0 -1 0 -4.2089150520041585e-04</internalNodes>
      <leafValues>
        -1. 5.7537471093282847e-16</leafValues></_>
    <_>
      <internalNodes>
        0 -1 0 -4.3766282033175230e-04</internalNodes>
      <leafValues>
        1. -6.6968341221968148e-16</leafValues></_>
    <_>
      <internalNodes>
        0 -1 0 -4.2089150520041585e-04</internalNodes>
      <leafValues>
        -1. 5.7537471093282847e-16</leafValues></_>
    <_>
      <internalNodes>
        0 -1 0 -4.3766282033175230e-04</internalNodes>
      <leafValues>
        1. -6.6968341221968148e-16</leafValues></_>
    <_>
      <internalNodes>
        0 -1 0 -4.2089150520041585e-04</internalNodes>
      <leafValues>
        -1. 5.7537471093282847e-16</leafValues></_>
    <_>
      <internalNodes>
        0 -1 0 -4.3766282033175230e-04</internalNodes>
      <leafValues>
        1. -6.6968341221968148e-16</leafValues></_>
    <_>
      <internalNodes>
        0 -1 0 -4.2089150520041585e-04</internalNodes>
      <leafValues>
        -1. 5.7537471093282847e-16</leafValues></_>
    <_>
      <internalNodes>
        0 -1 0 -4.3766282033175230e-04</internalNodes>
      <leafValues>
        1. -6.6968341221968148e-16</leafValues></_></weakClassifiers></stage12>
</opencv_storage>
