<?xml version="1.0"?>
<opencv_storage>
<stage17>
  <maxWeakCount>100</maxWeakCount>
  <stageThreshold>-1.2799040079116821e+00</stageThreshold>
  <weakClassifiers>
    <_>
      <internalNodes>
        0 -1 49832 -2.6030403096228838e-03</internalNodes>
      <leafValues>
        1. -8.5849058628082275e-01</leafValues></_>
    <_>
      <internalNodes>
        0 -1 6 -3.2032632589107379e-05</internalNodes>
      <leafValues>
        -1. -3.9812049269676208e-01</leafValues></_>
    <_>
      <internalNodes>
        0 -1 6220 -1.9175864290446043e-03</internalNodes>
      <leafValues>
        1. -2.3288713768124580e-02</leafValues></_>
    <_>
      <internalNodes>
        0 -1 36 -1.5989263774827123e-03</internalNodes>
      <leafValues>
        1. -7.7991979196667671e-03</leafValues></_>
    <_>
      <internalNodes>
        0 -1 6 -4.8826914280653000e-04</internalNodes>
      <leafValues>
        -1. 7.7948286198079586e-03</leafValues></_>
    <_>
      <internalNodes>
        0 -1 0 1.4172109076753259e-03</internalNodes>
      <leafValues>
        1.5787533413913479e-07 1.</leafValues></_>
    <_>
      <internalNodes>
        0 -1 0 1.3563032262027264e-03</internalNodes>
      <leafValues>
        3.5985479021258520e-15 -1.</leafValues></_>
    <_>
      <internalNodes>
        0 -1 0 1.4172109076753259e-03</internalNodes>
      <leafValues>
        -2.3102304828680848e-15 1.</leafValues></_>
    <_>
      <internalNodes>
        0 -1 0 1.3563032262027264e-03</internalNodes>
      <leafValues>
        2.2231070032541125e-15 -1.</leafValues></_>
    <_>
      <internalNodes>
        0 -1 0 1.4172109076753259e-03</internalNodes>
      <leafValues>
        6.4854856375714739e-16 1.</leafValues></_>
    <_>
      <internalNodes>
        0 -1 0 1.3563032262027264e-03</internalNodes>
      <leafValues>
        -1.8360120993259500e-15 -1.</leafValues></_>
    <_>
      <internalNodes>
        0 -1 0 1.4172109076753259e-03</internalNodes>
      <leafValues>
        -2.3021683173970000e-16 1.</leafValues></_>
    <_>
      <internalNodes>
        0 -1 0 1.3563032262027264e-03</internalNodes>
      <leafValues>
        1.2293844666778388e-15 -1.</leafValues></_>
    <_>
      <internalNodes>
        0 -1 0 1.4172109076753259e-03</internalNodes>
      <leafValues>
        -2.8665130182302422e-15 1.</leafValues></_>
    <_>
      <internalNodes>
        0 -1 0 1.3563032262027264e-03</internalNodes>
      <leafValues>
        2.2589489906589414e-15 -1.</leafValues></_>
    <_>
      <internalNodes>
        0 -1 0 1.4172109076753259e-03</internalNodes>
      <leafValues>
        8.4293399600385917e-16 1.</leafValues></_>
    <_>
      <internalNodes>
        0 -1 0 1.3563032262027264e-03</internalNodes>
      <leafValues>
        -1.8001701119211211e-15 -1.</leafValues></_>
    <_>
      <internalNodes>
        0 -1 0 1.4172109076753259e-03</internalNodes>
      <leafValues>
        -2.1678005692982942e-16 1.</leafValues></_>
    <_>
      <internalNodes>
        0 -1 0 1.3563032262027264e-03</internalNodes>
      <leafValues>
        2.5385175088561435e-15 -1.</leafValues></_>
    <_>
      <internalNodes>
        0 -1 0 1.4172109076753259e-03</internalNodes>
      <leafValues>
        -7.1035777552815537e-16 1.</leafValues></_>
    <_>
      <internalNodes>
        0 -1 0 1.3563032262027264e-03</internalNodes>
      <leafValues>
        -1.0331488497765276e-15 -1.</leafValues></_>
    <_>
      <internalNodes>
        0 -1 0 1.4172109076753259e-03</internalNodes>
      <leafValues>
        3.5831412727878027e-16 1.</leafValues></_>
    <_>
      <internalNodes>
        0 -1 0 1.3563032262027264e-03</internalNodes>
      <leafValues>
        7.3028300800245111e-16 -1.</leafValues></_>
    <_>
      <internalNodes>
        0 -1 0 1.4172109076753259e-03</internalNodes>
      <leafValues>
        -2.5081990233003599e-15 1.</leafValues></_>
    <_>
      <internalNodes>
        0 -1 0 1.3563032262027264e-03</internalNodes>
      <leafValues>
        1.6836831763993943e-15 -1.</leafValues></_>
    <_>
      <internalNodes>
        0 -1 0 1.4172109076753259e-03</internalNodes>
      <leafValues>
        7.8560373563925433e-16 1.</leafValues></_>
    <_>
      <internalNodes>
        0 -1 0 1.3563032262027264e-03</internalNodes>
      <leafValues>
        -1.8225713805189187e-15 -1.</leafValues></_>
    <_>
      <internalNodes>
        0 -1 0 1.4172109076753259e-03</internalNodes>
      <leafValues>
        -2.1767583397622024e-16 1.</leafValues></_>
    <_>
      <internalNodes>
        0 -1 0 1.3563032262027264e-03</internalNodes>
      <leafValues>
        2.5376215597561853e-15 -1.</leafValues></_>
    <_>
      <internalNodes>
        0 -1 0 1.4172109076753259e-03</internalNodes>
      <leafValues>
        -7.3275242668105261e-16 1.</leafValues></_>
    <_>
      <internalNodes>
        0 -1 0 1.3563032262027264e-03</internalNodes>
      <leafValues>
        -1.1478436753401011e-15 -1.</leafValues></_>
    <_>
      <internalNodes>
        0 -1 0 1.4172109076753259e-03</internalNodes>
      <leafValues>
        3.0098386691417543e-16 1.</leafValues></_>
    <_>
      <internalNodes>
        0 -1 0 1.3563032262027264e-03</internalNodes>
      <leafValues>
        7.3028300800245111e-16 -1.</leafValues></_>
    <_>
      <internalNodes>
        0 -1 0 1.4172109076753259e-03</internalNodes>
      <leafValues>
        -2.5081990233003599e-15 1.</leafValues></_>
    <_>
      <internalNodes>
        0 -1 0 1.3563032262027264e-03</internalNodes>
      <leafValues>
        1.6836831763993943e-15 -1.</leafValues></_>
    <_>
      <internalNodes>
        0 -1 0 1.4172109076753259e-03</internalNodes>
      <leafValues>
        7.8560373563925433e-16 1.</leafValues></_>
    <_>
      <internalNodes>
        0 -1 0 1.3563032262027264e-03</internalNodes>
      <leafValues>
        -1.8225713805189187e-15 -1.</leafValues></_>
    <_>
      <internalNodes>
        0 -1 0 1.4172109076753259e-03</internalNodes>
      <leafValues>
        -2.1767583397622024e-16 1.</leafValues></_>
    <_>
      <internalNodes>
        0 -1 0 1.3563032262027264e-03</internalNodes>
      <leafValues>
        2.5376215597561853e-15 -1.</leafValues></_>
    <_>
      <internalNodes>
        0 -1 0 1.4172109076753259e-03</internalNodes>
      <leafValues>
        -7.3275242668105261e-16 1.</leafValues></_>
    <_>
      <internalNodes>
        0 -1 0 1.3563032262027264e-03</internalNodes>
      <leafValues>
        -1.1478436753401011e-15 -1.</leafValues></_>
    <_>
      <internalNodes>
        0 -1 0 1.4172109076753259e-03</internalNodes>
      <leafValues>
        3.0098386691417543e-16 1.</leafValues></_>
    <_>
      <internalNodes>
        0 -1 0 1.3563032262027264e-03</internalNodes>
      <leafValues>
        7.3028300800245111e-16 -1.</leafValues></_>
    <_>
      <internalNodes>
        0 -1 0 1.4172109076753259e-03</internalNodes>
      <leafValues>
        -2.5081990233003599e-15 1.</leafValues></_>
    <_>
      <internalNodes>
        0 -1 0 1.3563032262027264e-03</internalNodes>
      <leafValues>
        1.6344002584292973e-15 -1.</leafValues></_>
    <_>
      <internalNodes>
        0 -1 0 1.4172109076753259e-03</internalNodes>
      <leafValues>
        7.8560373563925433e-16 1.</leafValues></_>
    <_>
      <internalNodes>
        0 -1 0 1.3563032262027264e-03</internalNodes>
      <leafValues>
        -1.8225713805189187e-15 -1.</leafValues></_>
    <_>
      <internalNodes>
        0 -1 0 1.4172109076753259e-03</internalNodes>
      <leafValues>
        -2.1767583397622024e-16 1.</leafValues></_>
    <_>
      <internalNodes>
        0 -1 0 1.3563032262027264e-03</internalNodes>
      <leafValues>
        2.5385175088561435e-15 -1.</leafValues></_>
    <_>
      <internalNodes>
        0 -1 0 1.4172109076753259e-03</internalNodes>
      <leafValues>
        -7.3364816402277403e-16 1.</leafValues></_>
    <_>
      <internalNodes>
        0 -1 0 1.3563032262027264e-03</internalNodes>
      <leafValues>
        -1.1505317343982126e-15 -1.</leafValues></_>
    <_>
      <internalNodes>
        0 -1 0 1.4172109076753259e-03</internalNodes>
      <leafValues>
        2.9829652254011315e-16 1.</leafValues></_>
    <_>
      <internalNodes>
        0 -1 0 1.3563032262027264e-03</internalNodes>
      <leafValues>
        6.1648434329707267e-16 -1.</leafValues></_>
    <_>
      <internalNodes>
        0 -1 0 1.4172109076753259e-03</internalNodes>
      <leafValues>
        -2.5055115995169588e-15 1.</leafValues></_>
    <_>
      <internalNodes>
        0 -1 0 1.3563032262027264e-03</internalNodes>
      <leafValues>
        1.6370884233665273e-15 -1.</leafValues></_>
    <_>
      <internalNodes>
        0 -1 0 1.4172109076753259e-03</internalNodes>
      <leafValues>
        7.8829110648309620e-16 1.</leafValues></_>
    <_>
      <internalNodes>
        0 -1 0 1.3563032262027264e-03</internalNodes>
      <leafValues>
        -1.8001701119211211e-15 -1.</leafValues></_>
    <_>
      <internalNodes>
        0 -1 0 1.4172109076753259e-03</internalNodes>
      <leafValues>
        -2.1678005692982942e-16 1.</leafValues></_>
    <_>
      <internalNodes>
        0 -1 0 1.3563032262027264e-03</internalNodes>
      <leafValues>
        2.5412057796724919e-15 -1.</leafValues></_>
    <_>
      <internalNodes>
        0 -1 0 1.4172109076753259e-03</internalNodes>
      <leafValues>
        -7.3275242668105261e-16 1.</leafValues></_>
    <_>
      <internalNodes>
        0 -1 0 1.3563032262027264e-03</internalNodes>
      <leafValues>
        -1.1478436753401011e-15 -1.</leafValues></_>
    <_>
      <internalNodes>
        0 -1 0 1.4172109076753259e-03</internalNodes>
      <leafValues>
        3.0098386691417543e-16 1.</leafValues></_>
    <_>
      <internalNodes>
        0 -1 0 1.3563032262027264e-03</internalNodes>
      <leafValues>
        9.7580143699474084e-16 -1.</leafValues></_>
    <_>
      <internalNodes>
        0 -1 0 1.4172109076753259e-03</internalNodes>
      <leafValues>
        -3.0788142031630073e-15 1.</leafValues></_>
    <_>
      <internalNodes>
        0 -1 0 1.3563032262027264e-03</internalNodes>
      <leafValues>
        1.7921055112303129e-15 -1.</leafValues></_>
    <_>
      <internalNodes>
        0 -1 0 1.4172109076753259e-03</internalNodes>
      <leafValues>
        8.2770566710120693e-16 1.</leafValues></_>
    <_>
      <internalNodes>
        0 -1 0 1.3563032262027264e-03</internalNodes>
      <leafValues>
        -1.7885212913140063e-15 -1.</leafValues></_>
    <_>
      <internalNodes>
        0 -1 0 1.4172109076753259e-03</internalNodes>
      <leafValues>
        -1.8363598857601367e-16 1.</leafValues></_>
    <_>
      <internalNodes>
        0 -1 0 1.3563032262027264e-03</internalNodes>
      <leafValues>
        2.5725675980610560e-15 -1.</leafValues></_>
    <_>
      <internalNodes>
        0 -1 0 1.4172109076753259e-03</internalNodes>
      <leafValues>
        -7.0229571593618894e-16 1.</leafValues></_>
    <_>
      <internalNodes>
        0 -1 0 1.3563032262027264e-03</internalNodes>
      <leafValues>
        -1.1460515653819478e-15 -1.</leafValues></_>
    <_>
      <internalNodes>
        0 -1 0 1.4172109076753259e-03</internalNodes>
      <leafValues>
        3.3144057765903910e-16 1.</leafValues></_>
    <_>
      <internalNodes>
        0 -1 0 1.3563032262027264e-03</internalNodes>
      <leafValues>
        9.8655409674366056e-16 -1.</leafValues></_>
    <_>
      <internalNodes>
        0 -1 0 1.4172109076753259e-03</internalNodes>
      <leafValues>
        -2.9838609627428530e-15 1.</leafValues></_>
    <_>
      <internalNodes>
        0 -1 0 1.3563032262027264e-03</internalNodes>
      <leafValues>
        1.7428226991393343e-15 -1.</leafValues></_>
    <_>
      <internalNodes>
        0 -1 0 1.4172109076753259e-03</internalNodes>
      <leafValues>
        8.1964355456968130e-16 1.</leafValues></_>
    <_>
      <internalNodes>
        0 -1 0 1.3563032262027264e-03</internalNodes>
      <leafValues>
        -1.7885212913140063e-15 -1.</leafValues></_>
    <_>
      <internalNodes>
        0 -1 0 1.4172109076753259e-03</internalNodes>
      <leafValues>
        -1.8363598857601367e-16 1.</leafValues></_>
    <_>
      <internalNodes>
        0 -1 0 1.3563032262027264e-03</internalNodes>
      <leafValues>
        2.5725675980610560e-15 -1.</leafValues></_>
    <_>
      <internalNodes>
        0 -1 0 1.4172109076753259e-03</internalNodes>
      <leafValues>
        -7.0229571593618894e-16 1.</leafValues></_>
    <_>
      <internalNodes>
        0 -1 0 1.3563032262027264e-03</internalNodes>
      <leafValues>
        -1.1460515653819478e-15 -1.</leafValues></_>
    <_>
      <internalNodes>
        0 -1 0 1.4172109076753259e-03</internalNodes>
      <leafValues>
        3.3144057765903910e-16 1.</leafValues></_>
    <_>
      <internalNodes>
        0 -1 0 1.3563032262027264e-03</internalNodes>
      <leafValues>
        9.8655409674366056e-16 -1.</leafValues></_>
    <_>
      <internalNodes>
        0 -1 0 1.4172109076753259e-03</internalNodes>
      <leafValues>
        -2.9838609627428530e-15 1.</leafValues></_>
    <_>
      <internalNodes>
        0 -1 0 1.3563032262027264e-03</internalNodes>
      <leafValues>
        1.7428226991393343e-15 -1.</leafValues></_>
    <_>
      <internalNodes>
        0 -1 0 1.4172109076753259e-03</internalNodes>
      <leafValues>
        8.1964355456968130e-16 1.</leafValues></_>
    <_>
      <internalNodes>
        0 -1 0 1.3563032262027264e-03</internalNodes>
      <leafValues>
        -1.7885212913140063e-15 -1.</leafValues></_>
    <_>
      <internalNodes>
        0 -1 0 1.4172109076753259e-03</internalNodes>
      <leafValues>
        -1.8363598857601367e-16 1.</leafValues></_>
    <_>
      <internalNodes>
        0 -1 0 1.3563032262027264e-03</internalNodes>
      <leafValues>
        2.5725675980610560e-15 -1.</leafValues></_>
    <_>
      <internalNodes>
        0 -1 0 1.4172109076753259e-03</internalNodes>
      <leafValues>
        -7.0229571593618894e-16 1.</leafValues></_>
    <_>
      <internalNodes>
        0 -1 0 1.3563032262027264e-03</internalNodes>
      <leafValues>
        -1.1460515653819478e-15 -1.</leafValues></_>
    <_>
      <internalNodes>
        0 -1 0 1.4172109076753259e-03</internalNodes>
      <leafValues>
        3.3144057765903910e-16 1.</leafValues></_>
    <_>
      <internalNodes>
        0 -1 0 1.3563032262027264e-03</internalNodes>
      <leafValues>
        9.8655409674366056e-16 -1.</leafValues></_>
    <_>
      <internalNodes>
        0 -1 0 1.4172109076753259e-03</internalNodes>
      <leafValues>
        -2.9838609627428530e-15 1.</leafValues></_>
    <_>
      <internalNodes>
        0 -1 0 1.3563032262027264e-03</internalNodes>
      <leafValues>
        1.7428226991393343e-15 -1.</leafValues></_>
    <_>
      <internalNodes>
        0 -1 0 1.4172109076753259e-03</internalNodes>
      <leafValues>
        8.1964355456968130e-16 1.</leafValues></_>
    <_>
      <internalNodes>
        0 -1 0 1.3563032262027264e-03</internalNodes>
      <leafValues>
        -1.7517832489301007e-15 -1.</leafValues></_>
    <_>
      <internalNodes>
        0 -1 0 1.4172109076753259e-03</internalNodes>
      <leafValues>
        -1.8274021152962284e-16 1.</leafValues></_>
    <_>
      <internalNodes>
        0 -1 0 1.3563032262027264e-03</internalNodes>
      <leafValues>
        2.5725675980610560e-15 -1.</leafValues></_>
    <_>
      <internalNodes>
        0 -1 0 1.4172109076753259e-03</internalNodes>
      <leafValues>
        -7.0229571593618894e-16 1.</leafValues></_></weakClassifiers></stage17>
</opencv_storage>
