<?xml version="1.0"?>
<opencv_storage>
<stage14>
  <maxWeakCount>5</maxWeakCount>
  <stageThreshold>-1.2747231721878052e+00</stageThreshold>
  <weakClassifiers>
    <_>
      <internalNodes>
        0 -1 118147 -6.2935631722211838e-03</internalNodes>
      <leafValues>
        1. -8.5849058628082275e-01</leafValues></_>
    <_>
      <internalNodes>
        0 -1 1083 7.6471911743283272e-03</internalNodes>
      <leafValues>
        -3.9375138282775879e-01 -1.</leafValues></_>
    <_>
      <internalNodes>
        0 -1 6220 -1.9175864290446043e-03</internalNodes>
      <leafValues>
        1. -2.2476861253380775e-02</leafValues></_>
    <_>
      <internalNodes>
        0 -1 467 -1.1329392902553082e-02</internalNodes>
      <leafValues>
        1. -1.1710672639310360e-02</leafValues></_>
    <_>
      <internalNodes>
        0 -1 6 2.2679372341372073e-04</internalNodes>
      <leafValues>
        1.1706351302564144e-02 -1.</leafValues></_></weakClassifiers></stage14>
</opencv_storage>
